{
  "slstm": {
    "test1": {
      "B": 1,
      "T": 1,
      "I": 2,
      "H": 2,
      "W": [
        0.96345764,
        0.74364203,
        0.4503586,
        -1.05276048,
        0.33920923,
        -0.61727244,
        -0.02153374,
        -0.80233347,
        -0.37606764,
        0.8243615,
        -0.19623932,
        -0.70180357,
        -0.36394066,
        -0.27971509,
        -0.38441944,
        0.3812227
      ],
      "R": [
        0.82115847,
        -0.07979874,
        -0.24869877,
        0.21979463,
        -0.37906557,
        0.53915882,
        0.40040028,
        0.84031028,
        0.63956219,
        0.64821142,
        0.30523324,
        0.66736889,
        -0.11581216,
        0.02087975,
        -0.12578765,
        0.42992926
      ],
      "b": [
        0.0,
        0.0,
        0.0,
        0.0,
        0.0,
        0.0,
        0.0,
        0.0
      ],
      "input": [
        1.0,
        0.5
      ],
      "expected_y": [
        0.01359604,
        -0.22511525
      ],
      "expected_c": [
        0.03609742,
        -0.49837443
      ],
      "expected_n": [
        1.0,
        1.0
      ],
      "expected_m": [
        1.33527863,
        -0.07602164
      ]
    },
    "test2": {
      "B": 1,
      "T": 3,
      "I": 2,
      "H": 2,
      "W": [
        0.96345764,
        0.74364203,
        0.4503586,
        -1.05276048,
        0.33920923,
        -0.61727244,
        -0.02153374,
        -0.80233347,
        -0.37606764,
        0.8243615,
        -0.19623932,
        -0.70180357,
        -0.36394066,
        -0.27971509,
        -0.38441944,
        0.3812227
      ],
      "R": [
        0.82115847,
        -0.07979874,
        -0.24869877,
        0.21979463,
        -0.37906557,
        0.53915882,
        0.40040028,
        0.84031028,
        0.63956219,
        0.64821142,
        0.30523324,
        0.66736889,
        -0.11581216,
        0.02087975,
        -0.12578765,
        0.42992926
      ],
      "b": [
        0.0,
        0.0,
        0.0,
        0.0,
        0.0,
        0.0,
        0.0,
        0.0
      ],
      "input": [
        1.0,
        0.5,
        0.30000001,
        -0.2,
        -0.5,
        1.0
      ],
      "expected_y": [
        0.16812575,
        -0.20084262
      ],
      "expected_c": [
        0.63085783,
        -0.64888012
      ],
      "expected_n": [
        1.78957176,
        2.04787779
      ],
      "expected_m": [
        0.21861291,
        -0.93307185
      ],
      "expected_output": [
        0.01359604,
        -0.22511525,
        -0.05999865,
        -0.07478932,
        0.16812575,
        -0.20084262
      ]
    },
    "test3": {
      "B": 1,
      "T": 1,
      "I": 2,
      "H": 2,
      "W": [
        5.0,
        5.0,
        5.0,
        5.0,
        5.0,
        5.0,
        5.0,
        5.0,
        0.5,
        0.5,
        0.5,
        0.5,
        0.5,
        0.5,
        0.5,
        0.5
      ],
      "R": [
        0.0,
        0.0,
        0.0,
        0.0,
        0.0,
        0.0,
        0.0,
        0.0,
        0.0,
        0.0,
        0.0,
        0.0,
        0.0,
        0.0,
        0.0,
        0.0
      ],
      "b": [
        0.0,
        0.0,
        0.0,
        0.0,
        0.0,
        0.0,
        0.0,
        0.0
      ],
      "input": [
        10.0,
        10.0
      ],
      "expected_y": [
        0.99995458,
        0.99995458
      ],
      "expected_c": [
        1.0,
        1.0
      ],
      "expected_n": [
        1.0,
        1.0
      ],
      "expected_m": [
        100.0,
        100.0
      ]
    }
  },
  "mlstm": {
    "test1": {
      "B": 1,
      "T": 1,
      "I": 3,
      "H": 2,
      "W": [
        0.16868509,
        -0.08888861,
        -0.1517638,
        -0.29400593,
        0.17430259,
        0.33017048,
        -0.10981881,
        -0.18958491,
        0.38355353,
        -0.59625101,
        0.34917596,
        -0.70486146,
        0.08968981,
        0.94757402,
        0.68445408,
        -0.80163509,
        -0.66247869,
        0.08921422,
        -1.06687653,
        0.5261789,
        -0.19424154,
        -0.46717295,
        0.9159469,
        -0.1689194,
        0.44027215,
        0.77707928,
        0.31330803,
        -0.0877436,
        0.04914189,
        -0.04675372
      ],
      "b": [
        0.0,
        0.0,
        0.0,
        0.0,
        0.0,
        0.0,
        0.0,
        0.0,
        0.0,
        0.0
      ],
      "input": [
        1.0,
        0.5,
        -0.30000001
      ],
      "expected_y": [
        0.00081466,
        -0.00190351
      ],
      "expected_C": [
        -0.07526524,
        0.24370453,
        -0.04949084,
        0.16024849
      ],
      "expected_n": [
        -0.21015556,
        -0.13818829
      ],
      "expected_m": [
        -0.67262405
      ]
    },
    "test2": {
      "B": 1,
      "T": 3,
      "I": 3,
      "H": 2,
      "W": [
        0.16868509,
        -0.08888861,
        -0.1517638,
        -0.29400593,
        0.17430259,
        0.33017048,
        -0.10981881,
        -0.18958491,
        0.38355353,
        -0.59625101,
        0.34917596,
        -0.70486146,
        0.08968981,
        0.94757402,
        0.68445408,
        -0.80163509,
        -0.66247869,
        0.08921422,
        -1.06687653,
        0.5261789,
        -0.19424154,
        -0.46717295,
        0.9159469,
        -0.1689194,
        0.44027215,
        0.77707928,
        0.31330803,
        -0.0877436,
        0.04914189,
        -0.04675372
      ],
      "b": [
        0.0,
        0.0,
        0.0,
        0.0,
        0.0,
        0.0,
        0.0,
        0.0,
        0.0,
        0.0
      ],
      "input": [
        1.0,
        0.5,
        -0.30000001,
        0.30000001,
        -0.2,
        0.80000001,
        -0.5,
        1.0,
        0.1
      ],
      "expected_y": [
        0.25203866,
        -0.05591988
      ],
      "expected_C": [
        -0.05742935,
        0.02888295,
        0.36041993,
        -0.09147088
      ],
      "expected_n": [
        -0.04624049,
        0.31464157
      ],
      "expected_m": [
        1.04019296
      ],
      "expected_output": [
        0.00081466,
        -0.00190351,
        -0.01144831,
        0.00183737,
        0.25203866,
        -0.05591988
      ]
    },
    "test3": {
      "B": 1,
      "T": 1,
      "I": 3,
      "H": 2,
      "W": [
        0.5,
        0.5,
        0.5,
        0.5,
        0.5,
        0.5,
        0.5,
        0.5,
        0.5,
        0.5,
        0.5,
        0.5,
        0.5,
        0.5,
        0.5,
        0.5,
        0.5,
        0.5,
        5.0,
        5.0,
        5.0,
        5.0,
        5.0,
        5.0,
        0.5,
        0.5,
        0.5,
        0.5,
        0.5,
        0.5
      ],
      "b": [
        0.0,
        0.0,
        0.0,
        0.0,
        0.0,
        0.0,
        0.0,
        0.0,
        0.0,
        0.0
      ],
      "input": [
        10.0,
        10.0,
        10.0
      ],
      "expected_y": [
        14.99999332,
        14.99999332
      ],
      "expected_C": [
        159.09902954,
        159.09902954,
        159.09902954,
        159.09902954
      ],
      "expected_n": [
        10.60660172,
        10.60660172
      ],
      "expected_m": [
        150.0
      ]
    }
  }
}